Language model created by QuickLM on Tue Jun  5 19:51:13 EDT 2012
Copyright (c) 1996-2010 Carnegie Mellon University and Alexander I. Rudnicky

The model is in standard ARPA format, designed by Doug Paul while he was at MITRE.

The code that was used to produce this language model is available in Open Source.
Please visit http://www.speech.cs.cmu.edu/tools/ for more information

The (fixed) discount mass is 0.5. The backoffs are computed using the ratio method.
This model based on a corpus of 26 sentences and 32 words

\data\
ngram 1=32
ngram 2=56
ngram 3=56

\1-grams:
-0.9274 </s> -0.3010
-0.9274 <s> -0.2464
-2.3424 BACKSPACE -0.2464
-2.3424 BROWSER -0.2464
-2.3424 CLICK -0.2464
-2.3424 CLOSE -0.2464
-2.3424 COPY -0.2464
-2.3424 CUT -0.2464
-2.3424 DISABLE -0.2971
-2.3424 ENABLE -0.2971
-2.3424 ENTER -0.2464
-2.0414 EXTERNAL -0.2971
-2.3424 GOOGLE -0.2464
-2.3424 HEADPHONES -0.2464
-2.3424 LEFT -0.2464
-2.0414 MONITOR -0.2464
-0.9274 MUTA -0.2464
-2.3424 MUTE -0.2464
-2.3424 NEW -0.2464
-2.3424 NOTEPAD -0.2464
-2.3424 PASTE -0.2464
-2.3424 PAUSE -0.2464
-2.3424 PLAY -0.2464
-2.3424 RIGHT -0.2464
-2.3424 RIGHTCLICK -0.2464
-2.3424 SAVE -0.2464
-2.3424 SPEAKERS -0.2464
-2.3424 STOP -0.2464
-2.3424 TAB -0.2464
-2.3424 TERMINAL -0.2464
-2.0414 USE -0.2971
-2.3424 __SETTINGS__ -0.2464

\2-grams:
-0.3010 <s> MUTA -0.0000
-0.3010 BACKSPACE </s> -0.3010
-0.3010 BROWSER </s> -0.3010
-0.3010 CLICK </s> -0.3010
-0.3010 CLOSE </s> -0.3010
-0.3010 COPY </s> -0.3010
-0.3010 CUT </s> -0.3010
-0.3010 DISABLE EXTERNAL 0.0000
-0.3010 ENABLE EXTERNAL 0.0000
-0.3010 ENTER </s> -0.3010
-0.3010 EXTERNAL MONITOR 0.0000
-0.3010 GOOGLE </s> -0.3010
-0.3010 HEADPHONES </s> -0.3010
-0.3010 LEFT </s> -0.3010
-0.3010 MONITOR </s> -0.3010
-1.7160 MUTA BACKSPACE 0.0000
-1.7160 MUTA BROWSER 0.0000
-1.7160 MUTA CLICK 0.0000
-1.7160 MUTA CLOSE 0.0000
-1.7160 MUTA COPY 0.0000
-1.7160 MUTA CUT 0.0000
-1.7160 MUTA DISABLE 0.0000
-1.7160 MUTA ENABLE 0.0000
-1.7160 MUTA ENTER 0.0000
-1.7160 MUTA GOOGLE 0.0000
-1.7160 MUTA LEFT 0.0000
-1.7160 MUTA MUTE 0.0000
-1.7160 MUTA NEW 0.0000
-1.7160 MUTA NOTEPAD 0.0000
-1.7160 MUTA PASTE 0.0000
-1.7160 MUTA PAUSE 0.0000
-1.7160 MUTA PLAY 0.0000
-1.7160 MUTA RIGHT 0.0000
-1.7160 MUTA RIGHTCLICK 0.0000
-1.7160 MUTA SAVE 0.0000
-1.7160 MUTA STOP 0.0000
-1.7160 MUTA TAB 0.0000
-1.7160 MUTA TERMINAL 0.0000
-1.4150 MUTA USE 0.0000
-1.7160 MUTA __SETTINGS__ 0.0000
-0.3010 MUTE </s> -0.3010
-0.3010 NEW </s> -0.3010
-0.3010 NOTEPAD </s> -0.3010
-0.3010 PASTE </s> -0.3010
-0.3010 PAUSE </s> -0.3010
-0.3010 PLAY </s> -0.3010
-0.3010 RIGHT </s> -0.3010
-0.3010 RIGHTCLICK </s> -0.3010
-0.3010 SAVE </s> -0.3010
-0.3010 SPEAKERS </s> -0.3010
-0.3010 STOP </s> -0.3010
-0.3010 TAB </s> -0.3010
-0.3010 TERMINAL </s> -0.3010
-0.6021 USE HEADPHONES 0.0000
-0.6021 USE SPEAKERS 0.0000
-0.3010 __SETTINGS__ </s> -0.3010

\3-grams:
-1.7160 <s> MUTA BACKSPACE
-1.7160 <s> MUTA BROWSER
-1.7160 <s> MUTA CLICK
-1.7160 <s> MUTA CLOSE
-1.7160 <s> MUTA COPY
-1.7160 <s> MUTA CUT
-1.7160 <s> MUTA DISABLE
-1.7160 <s> MUTA ENABLE
-1.7160 <s> MUTA ENTER
-1.7160 <s> MUTA GOOGLE
-1.7160 <s> MUTA LEFT
-1.7160 <s> MUTA MUTE
-1.7160 <s> MUTA NEW
-1.7160 <s> MUTA NOTEPAD
-1.7160 <s> MUTA PASTE
-1.7160 <s> MUTA PAUSE
-1.7160 <s> MUTA PLAY
-1.7160 <s> MUTA RIGHT
-1.7160 <s> MUTA RIGHTCLICK
-1.7160 <s> MUTA SAVE
-1.7160 <s> MUTA STOP
-1.7160 <s> MUTA TAB
-1.7160 <s> MUTA TERMINAL
-1.4150 <s> MUTA USE
-1.7160 <s> MUTA __SETTINGS__
-0.3010 DISABLE EXTERNAL MONITOR
-0.3010 ENABLE EXTERNAL MONITOR
-0.3010 EXTERNAL MONITOR </s>
-0.3010 MUTA BACKSPACE </s>
-0.3010 MUTA BROWSER </s>
-0.3010 MUTA CLICK </s>
-0.3010 MUTA CLOSE </s>
-0.3010 MUTA COPY </s>
-0.3010 MUTA CUT </s>
-0.3010 MUTA DISABLE EXTERNAL
-0.3010 MUTA ENABLE EXTERNAL
-0.3010 MUTA ENTER </s>
-0.3010 MUTA GOOGLE </s>
-0.3010 MUTA LEFT </s>
-0.3010 MUTA MUTE </s>
-0.3010 MUTA NEW </s>
-0.3010 MUTA NOTEPAD </s>
-0.3010 MUTA PASTE </s>
-0.3010 MUTA PAUSE </s>
-0.3010 MUTA PLAY </s>
-0.3010 MUTA RIGHT </s>
-0.3010 MUTA RIGHTCLICK </s>
-0.3010 MUTA SAVE </s>
-0.3010 MUTA STOP </s>
-0.3010 MUTA TAB </s>
-0.3010 MUTA TERMINAL </s>
-0.6021 MUTA USE HEADPHONES
-0.6021 MUTA USE SPEAKERS
-0.3010 MUTA __SETTINGS__ </s>
-0.3010 USE HEADPHONES </s>
-0.3010 USE SPEAKERS </s>

\end\
